
mean weight: 1.0;0.532360160277;0.365570869465;0.285364206394;0.237275248958;0.206948857246;0.186577880842;0.173169124685;0.162643773754;0.155356556353;0.14779987758;0.142862711451;0.135758867121;0.129703550056;0.122485119498;0.115383282816;0.110491897768;0.107553241835;0.101224244;0.0983282691099;0.0938296721161;0.0908679300175;0.0887401630858;0.0857760900466;0.0825439227273;0.080139889622;0.0781541820835;0.0767571275484;0.0742236426879;0.0716210202532;0.0705397390366;0.0694158912683;0.0680369829486;0.0669604754279;0.0660238190149;0.0641539189371;0.0626821002289;0.0605176048803;0.0599391646451;0.0588559772059;0.056952308287;0.0550834118406;0.053319629915;0.0517416495522;0.0505897968496;0.0499650391455;0.0484054179415;0.0473997655085;0.0462670325376;0.0448869220046;0.0446809707667;0.0431249672269;0.0415543948712;0.0409340907459;0.0396455086401;0.0393931372544;0.0383672667912;0.037235019626;0.0370632237873;0.0367172991513;0.0354830292344;0.0349034473328;0.0343148881778;0.0333313644898;0.0325854973128;0.0320766452823;0.0319453187213;0.0315696025108;0.0312633851452;0.0304315381091;0.0300776785516;0.0296573231586;0.0290258736282;0.028270293042;0.0277376977052;0.027876624324;0.0274347583676;0.0267074858832;0.0266162239011;0.0263951930146;0.025969583494;0.0263464781628;0.0259342390265;0.0254618101072;0.0247766229474;0.0238776586199;0.0232207674638;0.0228903886717;0.022473893566;0.0220000559262;0.0218770991305;0.0219056806342;0.0214821912655;0.0211846887897;0.0213229056853;0.0211099863939;0.02073714597;0.0206990871552;0.020533762268;0.0202118448668;
std: 0.0;0.292727461275;0.241491082992;0.216459676383;0.185146486069;0.166642684921;0.156244139756;0.142085073656;0.136657124754;0.127670355093;0.122493734672;0.117410399041;0.109652826574;0.0993996017841;0.0948749471077;0.0923193952948;0.0880288084277;0.084709731627;0.0800611954694;0.0778324496014;0.0770319135313;0.0748595862454;0.0732400724203;0.0727623903468;0.0701772500857;0.0685555524556;0.0667841182006;0.0648859948928;0.0630849796532;0.0623590569141;0.0603845316601;0.0589040440676;0.0571620494639;0.056356053279;0.0555008775987;0.0543027844983;0.0534421046823;0.0525193412027;0.0520670406858;0.0512552058955;0.0506219898172;0.0486143591924;0.0478890158029;0.0473817240871;0.0460090351219;0.0450018711165;0.044295029628;0.0430754517064;0.0414926386115;0.0408892133721;0.0398571894927;0.0376452114407;0.0368907152456;0.0353695476311;0.0344665442972;0.0339311379754;0.0335512076554;0.0331195382239;0.0328990911791;0.0325780995418;0.0319849695181;0.0318014165436;0.031563749225;0.0311363656508;0.0305950710503;0.0303066146182;0.0301220346034;0.0296711133692;0.0295760773605;0.0290371241699;0.0287711964258;0.0285047843871;0.0283895921376;0.0277863026892;0.0272285568709;0.0267224661896;0.0266458312868;0.0262024738559;0.0260851076588;0.025941068997;0.0247135085002;0.024601974256;0.024051141539;0.0238975689297;0.0235595647821;0.0230291155691;0.0222584371678;0.0217280952257;0.0215608290014;0.0213768975798;0.0212930435327;0.0210059116664;0.0207772918279;0.0204974772879;0.0202245841514;0.0198275450949;0.0197745778852;0.0196109523762;0.0191048481086;0.0190555318538;
log(mean): 0.0;-0.273794452858;-0.43702841834;-0.544600501931;-0.624747562252;-0.684136967395;-0.729139843964;-0.761529538266;-0.788762557503;-0.808670413938;-0.83032592566;-0.845081111478;-0.86723179477;-0.887048136881;-0.911916669767;-0.937857108917;-0.95666956708;-0.968376494716;-0.994715458103;-1.00732160573;-1.0276598013;-1.04158936512;-1.05187977748;-1.0666337542;-1.08331489603;-1.09615126006;-1.10704777763;-1.11488128606;-1.12945773551;-1.14495949668;-1.15156615135;-1.15854109583;-1.16725495311;-1.17418147146;-1.18029935839;-1.19277680896;-1.20285646047;-1.21811826849;-1.22228931399;-1.23020942516;-1.2444886692;-1.25897916759;-1.27311287363;-1.28615972985;-1.29593706456;-1.301333768;-1.31510602574;-1.32422380682;-1.33472835427;-1.34788017411;-1.3498773997;-1.36527122196;-1.38138303765;-1.38791485199;-1.40180600591;-1.40457943077;-1.41603913799;-1.42904841291;-1.43105680811;-1.4351292721;-1.44997931095;-1.45713167666;-1.46451741201;-1.47714690721;-1.48697564651;-1.49381105845;-1.49559277452;-1.50073088622;-1.50496399912;-1.51667609643;-1.5217556864;-1.52786805054;-1.53721469989;-1.54866968971;-1.55692958924;-1.5547598176;-1.56169886051;-1.57336699249;-1.57485355875;-1.57847515788;-1.58553501563;-1.57927743042;-1.58612649074;-1.59411072513;-1.60595788824;-1.62200826122;-1.6341234306;-1.64034683308;-1.64832168024;-1.65757621516;-1.6600102653;-1.65944324826;-1.66792142102;-1.67397791155;-1.67115361404;-1.67551204661;-1.68325101529;-1.68404880682;-1.68753147038;-1.69439404379;